{
  "modelVersion": "npas-mixture-irt-v1",
  "link": "ordered_probit",
  "itemIds": [
    "Q1",
    "Q2",
    "Q3",
    "Q4",
    "Q5",
    "Q6",
    "Q7",
    "Q8",
    "Q9",
    "Q10",
    "Q11",
    "Q12",
    "Q13",
    "Q14",
    "Q15",
    "Q16",
    "Q17",
    "Q18",
    "Q19",
    "Q20",
    "Q21",
    "Q22",
    "Q23",
    "Q24",
    "Q25",
    "Q26"
  ],
  "itemTexts": [
    "I am interested in science.",
    "I was in advanced classes.",
    "I like to play RPGs. (Ex. D&D)",
    "My appearance is not as important as my intelligence.",
    "I collect books.",
    "I prefer academic success to social success.",
    "I watch science related shows.",
    "I spend recreational time researching topics others might find dry or overly rigorous.",
    "I like science fiction.",
    "I would rather read a book than go to a party.",
    "I am more comfortable with my hobbies than I am with other people.",
    "I spend more time at the library than any other public place.",
    "I would describe my smarts as bookish.",
    "I like to read technology news reports.",
    "I have started writing a novel.",
    "I gravitate towards introspection.",
    "I am more comfortable interacting online than in person.",
    "I love to read challenging material.",
    "I have played a lot of video games.",
    "I was a very odd child.",
    "I sometimes prefer fictional people to real ones.",
    "I enjoy learning more than I need to.",
    "I get excited about my ideas and research.",
    "I am a strange person.",
    "I care about super heroes.",
    "I can be socially awkward at times."
  ],
  "responseScale": [
    1,
    2,
    3,
    4,
    5
  ],
  "irt": {
    "thetaMean": 0.0,
    "thetaSd": 1.0,
    "loadings": [
      0.48,
      0.42,
      0.44,
      0.5,
      0.58,
      0.54,
      0.43,
      0.48,
      0.56,
      0.49,
      0.29,
      0.47,
      0.56,
      0.47,
      0.28,
      0.39,
      0.54,
      0.3,
      0.22,
      0.5,
      0.35,
      0.42,
      0.47,
      0.55,
      0.38,
      0.57
    ],
    "thresholds": [
      [
        -1.7114912059154332,
        -1.162862707561695,
        -0.5268276345084524,
        0.3643427754124356
      ],
      [
        -1.5949234919292838,
        -1.1326069388319286,
        -0.6968990053190399,
        0.032106642628953776
      ],
      [
        -1.8161817561140101,
        -1.3131568659351522,
        -0.8970908009799483,
        0.09153759128654097
      ],
      [
        -1.544601822804087,
        -0.9234538643483606,
        -0.3658073646980035,
        0.3965395838271149
      ],
      [
        -1.620583556596474,
        -1.0632300212606403,
        -0.566145749126915,
        0.2799988730297628
      ],
      [
        -1.680968596235891,
        -1.0330566562589998,
        -0.3645519545377018,
        0.5162875364025993
      ],
      [
        -1.9290487016047817,
        -1.4153780695274398,
        -0.9318814749977014,
        -0.08230302710723224
      ],
      [
        -1.2650845740780052,
        -0.8206630892763873,
        -0.4197285829965668,
        0.2810168374865307
      ],
      [
        -1.8243903399588515,
        -1.263343612408017,
        -0.6018958308518051,
        0.31642637467384715
      ],
      [
        -1.9227957946156866,
        -1.4582346127587908,
        -0.7956999331571888,
        0.009395590145882877
      ],
      [
        -0.5881108209939756,
        -0.25969889025477605,
        0.12264337562185532,
        0.6082424164941851
      ],
      [
        -1.5356302931933568,
        -1.0099697960343053,
        -0.5236819590129439,
        0.3238434803001847
      ],
      [
        -1.3928231432477047,
        -0.8400045678402153,
        -0.23266218054312232,
        0.31848491884041846
      ],
      [
        -1.708114060868931,
        -0.9950871218873837,
        -0.2965264777730463,
        0.4681180939554074
      ],
      [
        -0.6238607515420265,
        -0.21099543640062482,
        0.1952096829328285,
        0.8051376040259852
      ],
      [
        -1.0390828563141832,
        -0.48654432012554777,
        0.03700303441250921,
        0.5781342094432516
      ],
      [
        -1.7234676072173287,
        -1.0519303955535484,
        -0.4466031193238639,
        0.3156033327978586
      ],
      [
        -1.400610343178343,
        -1.043796117553356,
        -0.5974442187556449,
        0.020749778523328637
      ],
      [
        -0.7943574808993066,
        -0.38218110747186373,
        -0.048562248787944115,
        0.41098028575376516
      ],
      [
        -1.6698174357853888,
        -0.9597407789130071,
        -0.1635811194769764,
        0.5335860137902562
      ],
      [
        -0.4390465174150718,
        -0.08328508020809801,
        0.1790746085469038,
        0.6976478169116943
      ],
      [
        -0.3645519545377018,
        0.2348749481848891,
        0.7253814942809327,
        1.2305496883194467
      ],
      [
        -1.3324058927212379,
        -0.8834174311187875,
        -0.5338117116589407,
        0.093699970941461
      ],
      [
        -2.162097635492782,
        -1.692332788745813,
        -1.0915582147325578,
        -0.09507625823616263
      ],
      [
        -1.031722587827441,
        -0.4533174594446673,
        0.0166385471012647,
        0.7746535043592017
      ],
      [
        -2.0856107175236778,
        -1.491929483994023,
        -0.9076785074387382,
        -0.05816714267572732
      ]
    ]
  },
  "selfIdCalibration": {
    "itemText": "I see myself as: nerdy",
    "responseScale": [
      1,
      2,
      3,
      4,
      5,
      6,
      7
    ],
    "loading": 0.5652660763682,
    "thresholds": [
      -2.0648497665480074,
      -1.6893855597052436,
      -1.4032626034209512,
      -0.8574162307702498,
      -0.16118609146186857,
      0.6658935597502462
    ],
    "nerdThresholdCategory": 5
  },
  "mixture": {
    "clusterLabels": [
      "hobbyist",
      "geek",
      "scholar"
    ],
    "clusterDisplayNames": [
      "The Introspective Hobbyist",
      "The Pop-Science Geek",
      "The Idea-Driven Scholar"
    ],
    "clusterWeights": [
      0.38162737164210125,
      0.319000749848559,
      0.2993718785093398
    ],
    "clusterIntercepts": [
      [
        0.2720962957897387,
        0.08483463066692432,
        0.409579948724657,
        0.18295776027402402,
        -0.3483740099661952,
        -0.2044597506788049,
        -0.3909563806929529,
        0.4445707331815957,
        -0.43447289619365975,
        0.020755386520353573,
        0.39995443574284917,
        -0.2581113507638316,
        0.20143408500478593,
        -0.08726274668703153,
        0.36068683797489265,
        0.472263521824066,
        0.4132847634371103,
        -0.30307774587016095,
        0.383727140093782,
        -0.07014819813552511,
        0.11427635410031625,
        -0.012813673507295568,
        -0.13120294205296087,
        -0.36552987959248484,
        -0.20555509857347415,
        -0.4572426496830051
      ],
      [
        -0.1515657842016581,
        0.4011181353080033,
        -0.4254599274445118,
        -0.08834455737979387,
        0.3028211942840299,
        -0.12281117922006908,
        0.6821930241821271,
        -0.39701495551307736,
        0.27668651432351615,
        -0.20027487759849832,
        0.2766254262415707,
        0.5446922814248896,
        -0.4896472265439486,
        0.00919549457197286,
        -0.007634445227399457,
        -0.39586517752089295,
        -0.42603422525500656,
        0.16366141407601661,
        0.33233131608575317,
        -0.1632863109510514,
        -0.17769147626752282,
        -0.2789506110161145,
        -0.19661058356831201,
        0.2992343803901806,
        0.5801736842178288,
        0.2767119285664144
      ],
      [
        -0.18535406752423056,
        -0.5355620035692613,
        -0.06876024403588886,
        -0.1390902490008228,
        0.12141711474761169,
        0.39150068504341135,
        -0.2285466176906117,
        -0.1436751244555804,
        0.2590208013793553,
        0.18694812887318288,
        -0.804608902101226,
        -0.2513759482119185,
        0.2649716880699067,
        0.10144066686546578,
        -0.45165423313406566,
        -0.18020195603101583,
        -0.0728710418672622,
        0.2119592864369116,
        -0.8432813402123475,
        0.2634146149796763,
        0.043667192723593144,
        0.31357488583749765,
        0.3767540160266519,
        0.14710872544170256,
        -0.3561803762016806,
        0.2880196975273954
      ]
    ]
  },
  "classificationRules": {
    "nonNerdMaxSelfIdProb": 0.33,
    "nerdMinSelfIdProb": 0.67,
    "strongSubtypeMinTopProb": 0.6,
    "strongSubtypeMinMargin": 0.2,
    "mixedSubtypeMinTopProb": 0.4,
    "mixedSubtypeMinSecondProb": 0.25,
    "mixedSubtypeMaxMargin": 0.2
  },
  "thetaGrid": {
    "min": -4.0,
    "max": 4.0,
    "step": 0.05
  }
}
